digraph Tree {
node [shape=box, style="filled, rounded", color="black", fontname="helvetica"] ;
edge [fontname="helvetica"] ;
0 [label="petal length (cm) <= 2.45\ngini = 0.66\nsamples = 100\nvalue = [47, 46, 57]\nclass = virginica", fillcolor="#f3ecfc"] ;
1 [label="gini = 0.0\nsamples = 33\nvalue = [47, 0, 0]\nclass = setosa", fillcolor="#e58139"] ;
0 -> 1 [labeldistance=2.5, labelangle=45, headlabel="True"] ;
2 [label="petal length (cm) <= 4.85\ngini = 0.49\nsamples = 67\nvalue = [0, 46, 57]\nclass = virginica", fillcolor="#e7d9fa"] ;
0 -> 2 [labeldistance=2.5, labelangle=-45, headlabel="False"] ;
3 [label="petal width (cm) <= 1.7\ngini = 0.08\nsamples = 31\nvalue = [0, 44, 2]\nclass = versicolor", fillcolor="#42e687"] ;
2 -> 3 ;
4 [label="gini = 0.0\nsamples = 28\nvalue = [0, 42, 0]\nclass = versicolor", fillcolor="#39e581"] ;
3 -> 4 ;
5 [label="sepal length (cm) <= 5.95\ngini = 0.5\nsamples = 3\nvalue = [0, 2, 2]\nclass = versicolor", fillcolor="#ffffff"] ;
3 -> 5 ;
6 [label="gini = 0.0\nsamples = 1\nvalue = [0, 2, 0]\nclass = versicolor", fillcolor="#39e581"] ;
5 -> 6 ;
7 [label="gini = 0.0\nsamples = 2\nvalue = [0, 0, 2]\nclass = virginica", fillcolor="#8139e5"] ;
5 -> 7 ;
8 [label="petal length (cm) <= 5.05\ngini = 0.07\nsamples = 36\nvalue = [0, 2, 55]\nclass = virginica", fillcolor="#8640e6"] ;
2 -> 8 ;
9 [label="sepal length (cm) <= 6.5\ngini = 0.38\nsamples = 6\nvalue = [0, 2, 6]\nclass = virginica", fillcolor="#ab7bee"] ;
8 -> 9 ;
10 [label="sepal length (cm) <= 6.2\ngini = 0.24\nsamples = 5\nvalue = [0, 1, 6]\nclass = virginica", fillcolor="#965ae9"] ;
9 -> 10 ;
11 [label="gini = 0.0\nsamples = 2\nvalue = [0, 0, 4]\nclass = virginica", fillcolor="#8139e5"] ;
10 -> 11 ;
12 [label="petal width (cm) <= 1.65\ngini = 0.44\nsamples = 3\nvalue = [0, 1, 2]\nclass = virginica", fillcolor="#c09cf2"] ;
10 -> 12 ;
13 [label="gini = 0.0\nsamples = 1\nvalue = [0, 1, 0]\nclass = versicolor", fillcolor="#39e581"] ;
12 -> 13 ;
14 [label="gini = 0.0\nsamples = 2\nvalue = [0, 0, 2]\nclass = virginica", fillcolor="#8139e5"] ;
12 -> 14 ;
15 [label="gini = 0.0\nsamples = 1\nvalue = [0, 1, 0]\nclass = versicolor", fillcolor="#39e581"] ;
9 -> 15 ;
16 [label="gini = 0.0\nsamples = 30\nvalue = [0, 0, 49]\nclass = virginica", fillcolor="#8139e5"] ;
8 -> 16 ;
}